{"layer": "fc2", "choose_neuron": 5, "input": [0, 0, 0, 4361, 3364, 0, 0, 509, 0, 7754, 3060, 4547, 0, 7626, 1406, 3622, 1688, 0, 0, 47, 5394, 0, 242, 0, 748, 4339, 2501, 3650, 3699, 738, 6384, 0, 1019, 4874, 4962, 827, 3010, 2907, 0, 0, 4227, 0, 0, 1130, 4676, 161, 1499, 0, 0, 107, 3126, 7220, 0, 159, 0, 0, 4706, 0, 972, 1175, 0, 2107, 3819, 0, 0, 0, 3965, 892, 0, 4012, 3101, 5726, 0, 3380, 4922, 1846, 0, 0, 602, 2866, 0, 2055, 3635, 2623, 391, 867, 6799, 232, 221, 51, 0, 3928, 4972, 0, 3164, 0, 5661, 999, 0, 0, 2588, 0, 2429, 0, 0, 327, 223, 0, 5018, 5110, 0, 0, 1631, 0, 3224, 0, 0, 1620, 3732, 0, 1026, 0, 4147, 5114, 1184, 0, 0, 1376, 0, 0, 2258, 1632, 5074, 301, 4658, 778, 0, 3605, 576, 0, 3460, 4817, 1500, 1832, 0, 0, 4527, 1702, 0, 248, 2663, 0, 0, 5117, 1341, 1611, 3953, 1742, 0, 1331, 1365, 2156, 0, 0, 459, 0, 0, 337, 0, 3260, 0, 6028, 2187, 3093, 0, 6155, 0, 3488, 663, 4002, 4466, 563, 0, 0, 5112, 0, 0, 7047, 546, 0, 61, 2851, 3669, 0, 4935, 0, 2195, 3483, 0, 1595, 4151, 3542, 4818, 0, 2467, 1563, 2893, 6695, 0, 4373, 2845, 1910, 0, 2963, 3671, 0, 4530, 0, 4141, 5982, 610, 4346, 0, 5563, 5313, 5022, 1537, 1571, 293, 362, 105, 2844, 4658, 3813, 2812, 0, 2938, 0, 0, 0, 280, 0, 0, 0, 1236, 0, 366, 0, 0, 3579, 1484, 1864, 2382, 6373, 1764, 5666, 2204, 0, 0, 2289, 791, 555, 2274, 1797, 6249, 0, 2543, 6959, 2181, 5046, 4459, 0, 435, 6904, 1313, 3942, 5640, 0, 322, 4377, 6664, 6366, 6516, 5020, 1956, 4730, 1344, 4032, 730, 1280, 4754, 2505, 5205, 5133, 4702, 0, 2498, 81, 6432, 8454, 6286, 5449, 0, 1547, 1552, 0, 2773, 0, 931, 0, 3457, 624, 3044, 7784, 0, 2448, 4584, 965, 5223, 393, 4569, 6297, 4109, 3170, 3023, 323, 1067, 3929, 2344, 0, 0, 0, 2758, 1029, 0, 964, 106, 1146, 0, 0, 0, 1442, 3845, 6495, 909, 0, 3081, 2813, 0, 4390, 2856, 0, 2875, 0, 0, 1836, 0, 472, 1102, 1631, 638, 0, 6122, 2671, 0, 1035, 1912, 0, 0, 113, 281, 7317, 2605, 4721, 8, 0, 4265, 0, 0, 0, 4139, 0, 31, 0, 3982, 4653, 5731, 6794, 0, 5346, 1998, 3178, 1646, 2009, 0, 374, 0, 2626, 0, 2760, 4459, 7593, 183, 0, 5820, 349, 4475, 0, 3461, 36, 1215, 0, 0, 6517, 0, 0, 0, 1118, 0, 6129, 0, 0, 1790, 0, 2105, 0, 0, 3680, 3858, 3611, 1818, 0, 0, 0, 3478, 0, 0, 3560, 4833, 0, 2428, 0, 513, 2185, 3843, 0, 0, 3282, 0, 0, 0, 6416, 65, 0, 0, 1816, 1658, 4918, 5579, 4344, 0, 736, 3664, 4798, 5657, 0, 5383, 768, 0, 1749, 2099, 0, 2149, 2271, 3880, 3373, 0, 3933, 2002, 4120, 1126, 1924, 0, 1038, 1879, 0, 2055, 0, 327, 5724, 0, 481, 0, 0, 1840, 0, 0, 0, 0, 0, 1855, 156, 0, 0, 808, 0, 149, 1306, 3107, 4548, 3792, 0, 0, 144, 0, 3135, 0, 1043, 856, 1754, 2446, 0, 2545, 4629, 0, 610, 6784, 3932, 3325, 5735, 2077, 180, 7082, 1967, 1257, 3050, 1295, 0, 5862, 0, 3562, 0, 3402, 2089, 3085, 4979, 303, 0, 5345, 327, 0, 1860, 4645, 91, 0, 1281, 0, 0, 0, 0, 1736, 149, 1025, 0, 0, 2099, 1493, 0, 0, 4820, 2502, 3347, 678, 0, 4238, 0, 5054, 0, 414, 0, 2202, 1059, 397, 2453, 4041, 5585, 1717, 754, 0, 1830, 0, 8490, 3364, 0, 0, 669, 1042, 4660, 5541, 1877, 1307, 3571, 817, 7647, 0, 1416, 668, 4489, 0, 188, 435, 0, 5018, 424, 2863, 0, 2213, 2947, 672, 0, 2154, 6048, 0, 0, 0, 5938, 2309, 3352, 0, 0, 2785, 0, 0, 5215, 0, 56, 0, 3996, 0, 4408, 5399, 2005, 0, 0, 0, 212, 1796, 0, 0, 0, 2996, 2765, 2530, 3207, 3156, 3074, 522, 0, 476, 6339, 5675, 0, 42, 3310, 3056, 0, 708, 753, 2321, 0, 630, 0, 2168, 3896, 4984, 6347, 1322, 0, 0, 0, 847, 0, 3490, 3920, 8554, 1728, 2644, 6331, 1238, 0, 0, 0, 423, 5387, 1010, 3039, 3875, 0, 4673, 0, 2845, 834, 4583, 0, 2544, 0, 0, 3893, 0, 0, 1549, 1175, 2226, 0, 1554, 0, 775, 3244, 3613, 3861, 0, 2107, 2653, 2473, 283, 1554, 0, 1724, 0, 4270, 3343, 0, 0, 404, 3446, 43, 0, 2973, 781, 2912, 0, 100, 0, 410, 3035, 6256, 2557, 0, 1494, 1393, 3284, 2348, 4269, 1015, 0, 4891, 494, 0, 67, 3903, 6264, 0, 0, 5050, 1308, 4112, 81, 1324, 2619, 1110, 0, 0, 0, 5905, 2332, 168, 3126, 0, 6220, 2366, 93, 3760, 2538, 0, 707, 4673, 524, 3677, 0, 192, 3092, 0, 0, 0, 100, 1857, 0, 0, 3923, 4767, 0, 0, 0, 2993, 0, 0, 133, 3377, 4106, 4432, 0, 3692, 570, 0, 6039, 1775, 4647, 6749, 5387, 1195, 3217, 0, 3713, 267, 1457, 0, 4297, 0, 797, 1233, 0, 0, 3076, 0, 1537, 0, 4878, 1947, 249, 704, 935, 277, 3887, 132, 1985, 5424, 0, 0, 1540, 0, 7271, 0, 3520, 5677, 1414, 1093, 0, 0, 1583, 521, 4757, 0, 4546, 0, 3915, 3349, 3248, 3857, 0, 1418, 3943, 2223, 1576, 1221, 0, 4460, 4155, 5694, 0, 7590, 0, 3812, 439, 5298, 663, 1876, 5949, 1222, 2857, 0, 0, 0, 5381, 1411, 5998, 0, 0, 1350, 0, 5101, 0, 0, 2758, 0, 0, 0, 0, 3399, 1628, 2610, 0, 3378, 5754, 0, 281, 0, 1385, 148, 1844, 0, 2064, 1244, 896, 1435, 5189, 0, 5316, 0, 5720, 4334, 2987, 0, 2948, 585, 3505, 147, 2988, 0, 0, 2551, 2144, 2459, 1686, 0, 0, 4177, 0, 5136, 0, 0, 4124, 5299, 0, 0, 368, 5046, 0, 0, 1736, 0, 0, 922, 0, 8229, 0, 1075, 3387, 702, 6661, 5505, 5040, 0, 0, 0, 6236, 0, 5684, 1056, 3110, 3272, 0, 0, 1724, 388, 2760, 0, 3393, 1074, 1482, 2956, 2038, 928, 5015, 1253, 0, 2568, 3111, 0, 2453, 3825, 0, 5571, 0, 4961, 3349, 1432, 4794, 694, 0, 0, 0, 1737, 4333, 0, 0, 0, 0, 1668, 3675, 2218, 966, 4639, 0, 0, 0, 3077, 0, 0, 0, 0, 1777, 6690, 0, 4556, 2369, 7412, 2352, 3428, 4094, 4435, 2720, 0, 3159, 1504, 1095, 6552, 4051, 0, 6155, 3918, 0, 3768, 1494, 771, 0, 837, 0, 0, 0, 0, 0, 5196, 5623, 4664, 0, 4072, 7070, 1400, 5164, 0, 4592, 3436, 0, 0, 0, 0, 3326, 6161, 3503, 0, 0, 0, 2038, 314, 1822, 1324, 5208, 0, 6044, 2908, 0, 4432, 0, 2099, 4612, 1361, 140, 552, 1498, 0, 592, 4896, 1028, 1465, 1260, 0, 3012, 0, 0, 5241, 1689, 0, 0, 1076, 1982, 87, 5687, 0, 4147, 27, 2898, 5724, 2550, 416, 517, 0, 5612, 1334, 0, 2316, 3229, 2363, 0, 1735, 0, 2862, 4025, 3776, 0, 6643, 0, 6409, 2146, 4845, 4817, 1307, 4447, 4761, 0, 0, 2067, 4365, 1784, 42, 93, 1442, 0, 8486, 2188, 744, 0, 0, 0, 5194, 3969, 0, 539, 4932, 4998, 4421, 0, 1624, 0, 3725, 2416, 4934, 6209, 0, 5304, 6629, 0, 0, 388, 2037, 3744, 0, 638, 3456, 0, 2981, 0, 656, 1810, 1107, 0, 0, 8174, 3342, 0, 755], "output": [-21897, -17538, -14960, -4232, -23052, -23393, -73241, 49060, -23442, 9028], "checkpoint_weight": [16, -10, -20, 32, 33, -71, 32, -13, 8, -66, -29, 47, -4, -12, 39, -53, -2, 32, -63, -20, 9, -43, 28, -30, 23, 40, -67, 33, -65, 47, -22, 32, -4, -1, -7, -38, -19, 30, -4, -16, -7, 47, 26, 36, -52, -9, 35, -22, -2, 3, -5, -60, 15, 42, -16, 37, -28, 55, 17, 6, 10, 24, -82, -29, 12, -59, -45, -15, 13, 39, -47, -13, 46, 34, -36, 45, -20, 14, 8, 27, -50, -21, -62, -11, -71, -55, 18, -57, 40, 0, -26, 41, -12, 10, 20, -20, 27, 47, 44, -50, 32, -44, -35, 25, -47, -32, 71, -20, -48, -45, -48, 9, -32, 27, -44, 19, -50, 8, 32, -6, 28, -1, 20, -49, -42, -24, 48, -22, 41, 49, 26, -14, -29, 6, 21, 23, 17, -22, 53, 15, -6, -64, 36, 14, 7, 33, -11, 23, 56, 38, 1, 30, 28, -37, 2, 30, -46, -19, 42, 48, 44, 38, 24, 18, 60, -1, -48, -48, 29, -63, -15, -12, 31, -95, 21, 8, 51, 21, 54, -3, -84, 54, -21, -32, 3, -63, 26, 21, 11, 83, 10, -31, 19, 16, -11, 44, 60, 49, 40, 30, -57, -46, 16, 20, -59, 30, -51, -10, 32, -44, -59, 7, 26, -45, -35, 46, 12, 4, -25, 14, 26, -70, -39, -19, 41, -44, 2, -64, 17, -48, -55, 8, 8, -37, -47, 18, -23, 50, -52, 41, -74, 31, -89, -50, 33, 28, 27, 12, -10, 63, 43, -20, 12, 4, 23, 13, -53, 33, -40, 20, -47, 0, 21, 14, -53, -43, -27, -26, 36, -13, -51, 30, -50, -37, -21, -5, 12, -36, -9, -83, 40, -33, -13, -23, -14, 16, -61, 27, 37, -61, 14, -75, 38, 5, -8, -15, -40, 55, -5, -66, -44, -73, 49, -61, 33, 31, 17, 28, -43, -26, 30, -57, -54, 37, 7, -12, 31, -25, -58, -54, -37, -35, 33, -36, 30, -31, -63, -61, -31, -25, -2, 29, 34, 22, 3, 13, 39, -27, -37, -73, 62, -5, -72, -105, 34, 39, -35, 29, -15, -10, 32, -51, -7, -48, -24, -6, -31, 50, 18, 57, -47, 39, -46, -69, 18, 1, -15, -47, 0, -15, 27, -22, -61, -67, 16, 14, -25, 0, 27, 40, 34, -51, 28, -7, -6, -13, -32, -33, -48, -23, -67, -29, 42, 37, -72, -30, 0, -37, -55, -54, -10, 14, 17, -64, 1, 28, 25, -40, -52, -52, -49, 21, 43, -49, 10, 13, 20, 37, -26, -2, -27, -10, -58, -55, 38, 31, 4, 27, 28, -60, -6, -22, 14, 12, 26, 44, -27, 21, -45, 39, 4, 27, -50, 1, -18, 40, 39, -26, -60, 6, 83, 0, -50, -47, 39, -60, -20, -70, 44, 25, 10, -5, 42, -19, -38, 9, -5, 14, 30, -16, 8, 49, -44, -30, 32, -31, 53, 57, -2, -33, 43, 18, 26, 43, 26, -27, -13, -43, -9, 38, -19, -60, 31, 10, -2, 13, 32, -66, -24, 19, 46, -51, -24, 37, -36, 17, 16, 8, -11, -30, -11, -1, 43, -53, 12, -52, 25, -28, -30, -56, -30, -21, 51, -32, 10, 47, -23, -42, 24, 32, -25, 30, -23, -59, -59, 28, -35, -43, -17, 27, 39, 40, -55, -14, 23, -43, -16, 14, 38, 13, 20, -35, -76, 2, -64, -42, 31, 15, -59, -62, -41, -27, -42, -26, 32, 29, -15, -64, -41, 27, 7, 21, -19, -16, 11, -24, -40, -2, -60, -12, -4, 22, -26, 10, -15, 30, 59, -31, -18, 13, -3, 38, -29, -8, -8, 15, 44, -17, -44, 45, -28, 33, 24, -19, 13, -6, -71, -50, -22, 9, -58, 38, -85, 10, 31, 38, -1, -60, -39, 41, -13, -2, 41, 28, -22, -9, 30, -16, -7, -34, 11, 35, -3, -46, -28, -51, 34, -45, 34, -57, 38, -46, -27, 4, -51, 28, -48, 30, 31, -8, -80, -35, 41, -12, 16, 18, 24, 26, 48, 11, -21, -61, -19, 44, 43, 0, 3, 17, -55, 42, -32, 21, 29, -8, -31, 42, 16, 32, -36, -8, 7, -48, -30, 4, -65, -88, -46, 13, 31, -25, -15, 39, -13, 8, 40, 11, -5, -8, 16, -15, -39, 44, -45, 35, 29, 22, -42, -5, -23, 42, -65, -20, 32, -16, -52, 8, -11, -7, 5, 61, 46, 27, 5, -41, -16, 22, 43, -47, 17, -2, -7, -17, 16, -49, -39, -62, 8, 40, -7, -30, -8, 20, -39, 47, -59, -19, 39, -8, 19, 36, 15, 47, 10, -50, -41, -21, -7, -56, 25, 0, 11, 19, -54, -69, 19, 28, -38, -22, 0, -36, 0, 8, -29, -91, 48, -41, -59, -64, 12, 22, -3, -58, -33, 6, 53, 54, -12, -43, 28, 38, 15, 39, -29, -34, 5, -30, 25, 16, -29, 47, 44, 35, 41, -42, -13, 61, 2, 9, 30, -23, 32, -20, -56, 62, -41, 38, 40, 10, 31, 51, -15, -4, -22, 51, 51, -6, -52, -43, -17, 24, 19, 36, 45, -50, -31, -36, -3, -66, -10, -55, 48, -17, -50, -22, 29, -13, 1, -18, 55, 38, 41, 41, -4, 23, -29, 23, 17, -21, -25, -58, 14, 38, 0, -53, 41, 0, -17, -37, -20, -14, 19, -32, -11, 1, -34, 18, 8, 15, -20, 13, -31, 21, 5, 41, 44, 35, 28, -57, -48, 11, 0, -46, 18, -41, 20, -41, 44, 31, 34, -60, -12, -43, -55, 33, 25, 9, 33, -26, 28, 15, -19, -64, -55, -51, -23, -22, 15, -54, 40, -24, 13, -24, 48, -59, 44, 49, -40, 33, -68, -28, 37, 30, -58, 21, -38, -34, 0, -43, 31, -1, -20, 35, -14, -37, -11, -81, -18, -8, 25, 0, -53, -45, 11, -5, 8, 33, 4, 34, 21, 31, 12, -5, 0, 6, -26, 28, 10, -30, -40, -31, -34, 15, 12, 47, -7, 44, 10, 56, -41, -64, 19, 0, -27, -42, 38, -24, 16, 11, -34, 34, -43, -19, 37, 8, 10, -38, -64, 18, 3, -31, 43, 18, -3, 9, -50, -13, -41, -64, 14, -6, 36, -73, -41, 33, 44, 36, 40, 13, 31, 44, 28, -49, -16, 22, 14, 14, -61, -41, 22, 48, -52, -75, -16, -1, 37, 15, -55, -10, -36, -34, 32, 36, 29, -71, 32, 23, -29, 32, -42, -43, -43, 16, 38, -14, 49, -58, -50, 37, 1, -70, 40, -22, -14, 31, 5, 24, 37, -37, 31, 24, -78, 9, -1, 28, -6, -8, 12, -22, 6, -59, 9, 54, -86, 3, -67, -61, -92, -46, 4, -58, 37, 22, -12, -38, -34, -21, 50, -42, 11, -70, 29, 42, 20, 5, 22, -29, -18, 40, 58, 25, -74, -8, -13, 2, -19, -65, -37, 27, -5, 31, -21, -47, -34, -29, -34, 31, -79, -17, -36, 23, -16, 8, 5, -87, 16, -55, -44, -54, -51, -1, 36, -63, -14, -13, -50, 38, 16, -27, -3, 35, 43, 13, -35, 26, -35, 22, -40, -64, 29, 19, 18, -19, 1, -7, 13, -4, -41, -78, -6, 40, -2, 21, 29, 29, -35, 13, 16, -11, 19, 39, -36, 22, -2, 8, -38, -3, -64, 12, -16, -36, 50, 44, 19, -44, -18, 1, 20, -22, 20, 16], "checkpoint_bias": 4, "calculated_output": -23254}