{"layer": "fc2", "choose_neuron": 540, "input": [0, 369, 0, 561, 1476, 0, 0, 0, 693, 981, 0, 0, 1111, 0, 0, 537, 0, 0, 0, 0, 0, 0, 0, 1308, 594, 0, 1069, 1086, 247, 210, 1424, 0, 0, 0, 623, 0, 442, 870, 0, 1491, 0, 0, 0, 184, 1793, 0, 25, 0, 488, 0, 0, 1418, 1687, 1228, 1475, 646, 0, 0, 1522, 2836, 1700, 0, 1402, 1078, 0, 548, 0, 393, 1597, 1179, 0, 1558, 1814, 319, 0, 209, 0, 1723, 1301, 117, 2199, 0, 730, 1269, 1030, 0, 133, 0, 0, 359, 0, 577, 444, 801, 173, 0, 107, 1827, 0, 990, 2058, 0, 0, 0, 434, 0, 1455, 1262, 1115, 1728, 0, 0, 1868, 0, 0, 168, 440, 517, 1419, 0, 9, 0, 0, 1974, 725, 208, 1405, 506, 0, 1350, 550, 0, 0, 1583, 15, 0, 698, 0, 0, 190, 583, 431, 0, 0, 336, 350, 2096, 413, 1383, 1379, 0, 0, 2720, 25, 554, 0, 1641, 0, 79, 535, 158, 0, 0, 0, 581, 47, 0, 2026, 1936, 0, 775, 0, 0, 1717, 2300, 0, 1682, 0, 0, 1789, 497, 915, 0, 0, 0, 0, 1067, 0, 685, 0, 224, 95, 512, 0, 0, 0, 0, 0, 0, 0, 0, 0, 1305, 0, 0, 0, 0, 871, 843, 1318, 1345, 869, 0, 561, 0, 0, 158, 0, 480, 0, 0, 688, 2056, 1137, 1226, 264, 1491, 1726, 674, 0, 0, 378, 0, 257, 0, 0, 0, 0, 235, 511, 1754, 228, 726, 481, 286, 764, 0, 0, 2123, 0, 546, 0, 2270, 28, 1640, 0, 0, 0, 0, 0, 0, 0, 0, 1574, 1431, 0, 88, 0, 715, 0, 0, 1361, 1518, 1038, 0, 828, 0, 0, 0, 0, 1603, 490, 2015, 1751, 0, 633, 1547, 0, 0, 0, 0, 538, 836, 506, 0, 2225, 0, 1906, 0, 2285, 465, 1032, 2347, 430, 1305, 1100, 1498, 373, 1360, 1235, 0, 0, 2140, 0, 0, 75, 2862, 0, 0, 0, 0, 311, 591, 2485, 0, 0, 0, 2444, 0, 0, 667, 0, 0, 0, 0, 2211, 0, 0, 0, 149, 938, 993, 511, 0, 0, 320, 0, 70, 714, 165, 0, 0, 0, 287, 1323, 193, 0, 0, 1395, 238, 141, 715, 0, 0, 653, 2050, 1261, 0, 0, 216, 383, 86, 0, 0, 442, 0, 2117, 0, 0, 0, 439, 429, 0, 375, 451, 498, 838, 0, 0, 1972, 328, 0, 1402, 731, 615, 0, 621, 0, 0, 0, 2281, 40, 0, 1231, 1662, 0, 0, 351, 0, 974, 86, 0, 911, 0, 0, 3046, 1552, 383, 1767, 0, 710, 1714, 0, 1416, 352, 0, 1099, 0, 0, 0, 1816, 0, 972, 0, 1123, 1785, 0, 0, 0, 0, 0, 0, 418, 305, 596, 0, 2240, 0, 1712, 1217, 0, 0, 2035, 0, 400, 0, 0, 1178, 374, 0, 0, 474, 1208, 374, 1360, 254, 0, 0, 0, 1341, 0, 102, 0, 2113, 0, 0, 0, 0, 0, 2449, 0, 0, 309, 0, 1068, 2332, 1324, 0, 0, 0, 1444, 283, 578, 1066, 1821, 2476, 480, 410, 0, 1240, 0, 507, 0, 444, 596, 2789, 0, 0, 0, 271, 2156, 315, 1245, 691, 688, 704, 0, 1725, 566, 507, 210, 2835, 0, 0, 0, 0, 0, 625, 0, 0, 504, 789, 1826, 0, 0, 0, 0, 0, 283, 0, 741, 1525, 219, 1772, 1446, 0, 83, 774, 895, 2829, 0, 688, 561, 0, 0, 0, 0, 0, 0, 0, 0, 0, 0, 0, 2012, 585, 2728, 700, 1647, 264, 1691, 1127, 562, 532, 1011, 166, 221, 0, 0, 0, 0, 15, 1792, 0, 155, 342, 2471, 1155, 0, 362, 613, 1117, 831, 0, 436, 0, 1871, 1640, 1567, 0, 0, 0, 1908, 1120, 1635, 1430, 0, 131, 0, 0, 0, 0, 515, 803, 0, 0, 0, 0, 0, 0, 1178, 155, 0, 1352, 0, 0, 0, 265, 0, 190, 428, 2524, 393, 0, 597, 1025, 629, 0, 0, 0, 0, 555, 308, 1307, 0, 1631, 0, 0, 0, 951, 1220, 682, 0, 601, 416, 875, 0, 0, 1052, 0, 667, 1660, 0, 389, 0, 1776, 2010, 0, 814, 819, 0, 0, 0, 2884, 0, 97, 0, 0, 1701, 0, 1256, 1209, 0, 0, 961, 1966, 765, 0, 0, 2812, 248, 0, 0, 0, 0, 1423, 0, 636, 544, 0, 1516, 1532, 254, 0, 1322, 0, 418, 0, 196, 443, 0, 0, 2072, 717, 489, 1732, 1286, 0, 142, 27, 0, 0, 0, 0, 0, 1442, 0, 0, 887, 0, 0, 1588, 0, 0, 0, 384, 0, 0, 746, 466, 1376, 0, 0, 0, 0, 1803, 270, 683, 0, 385, 515, 1777, 315, 0, 2554, 1096, 0, 0, 1065, 1875, 1382, 1260, 0, 0, 0, 0, 2214, 2, 800, 888, 865, 1014, 2577, 0, 559, 0, 1184, 0, 969, 2737, 0, 0, 810, 1153, 0, 1512, 0, 0, 0, 893, 1567, 713, 0, 0, 0, 494, 0, 0, 894, 2060, 214, 0, 0, 0, 2741, 0, 0, 0, 783, 134, 1735, 1317, 3276, 1151, 2639, 925, 695, 434, 0, 2476, 0, 79, 514, 0, 0, 0, 753, 0, 935, 0, 177, 0, 0, 19, 0, 553, 0, 91, 212, 0, 0, 794, 0, 0, 52, 0, 0, 0, 0, 0, 0, 0, 495, 0, 34, 0, 0, 1152, 507, 0, 439, 649, 0, 0, 1485, 0, 0, 0, 0, 1376, 223, 79, 0, 0, 422, 0, 0, 0, 857, 1009, 593, 1010, 35, 1472, 0, 0, 1328, 1199, 586, 321, 565, 0, 0, 0, 2076, 7, 1633, 0, 0, 452, 0, 37, 0, 753, 0, 1752, 638, 241, 0, 172, 3285, 0, 1652, 0, 0, 510, 0, 0, 0, 686, 0, 701, 0, 2730, 390, 0, 0, 2449, 109, 1004, 571, 0, 0, 0, 1700, 851, 1191, 0, 707, 0, 0, 0, 0, 92, 819, 113, 0, 0, 106, 0, 712, 1960, 22, 0, 605, 675, 0, 0, 0, 0, 0, 1900, 536, 1952, 1675, 1108, 664, 725, 705, 1659, 0, 163, 338, 1197, 426, 0, 0, 0, 1847, 372, 0, 0, 0, 357, 2165, 934, 0, 1731, 1831, 0, 1096, 1880, 259, 0, 1168, 731, 554, 617, 0, 0, 0, 0, 0, 733, 502, 83, 0, 960, 0, 0, 404, 0, 764, 619, 0, 382, 0, 0, 84, 0, 601, 0, 0, 0, 809, 0, 32, 266, 563, 0, 2241, 0, 1727, 1407, 0, 0, 488, 0, 0, 0, 627, 0, 0, 0, 1076, 1497, 1948, 1313, 1343, 849, 0, 2807, 255, 59, 0, 0, 0, 0, 2154, 623, 0, 1581, 819, 0, 0, 364, 1296, 0, 2048, 0, 845, 190, 2032, 1254, 793, 0, 0, 0, 0, 0, 476, 0, 2520, 566, 1030, 0, 785, 1195, 669, 0, 0, 986, 0, 17, 0, 613, 1630, 0, 1019, 785, 94, 0, 864, 0, 680, 0, 0, 909, 0, 0, 153, 0, 286, 1039, 1458, 1660, 0, 920, 110, 1421, 419, 0, 1046, 373, 0, 519, 124, 995, 892, 64, 0, 664, 760, 670, 0, 480, 191, 0, 284, 1556, 0, 825, 2269, 0, 0, 0, 0, 0, 0, 964, 138, 1635, 0, 1068, 0, 0, 0, 0, 220, 532, 449, 539, 0, 0, 385, 0, 0, 0, 871, 1382, 2970, 705, 0, 0, 794, 2635, 466, 322, 611, 0, 0, 0, 1086, 127, 0, 1159, 0, 0, 820, 1563, 0, 0, 697, 0, 0, 522, 1159, 215, 0, 2003], "output": [-2984, -3360, -235, 4361, 3364, -1038, -2268, 509, -560, 7754, 3060, 4547, -3161, 7626, 1406, 3622, 1688, -1853, -1073, 47, 5394, -1820, 242, -1554, 748, 4339, 2501, 3650, 3699, 738, 6384, -327, 1019, 4874, 4962, 827, 3010, 2907, -2398, -140, 4227, -1039, -2864, 1130, 4676, 161, 1499, -2773, -407, 107, 3126, 7220, -3046, 159, -356, -499, 4706, -1244, 972, 1175, -1614, 2107, 3819, -343, -543, -2299, 3965, 892, -2672, 4012, 3101, 5726, -2212, 3380, 4922, 1846, -3159, -252, 602, 2866, -1750, 2055, 3635, 2623, 391, 867, 6799, 232, 221, 51, -4001, 3928, 4972, -1293, 3164, -2117, 5661, 999, -226, -4275, 2588, -2111, 2429, -1397, -924, 327, 223, -280, 5018, 5110, -1244, -759, 1631, -165, 3224, -542, -407, 1620, 3732, -1988, 1026, -398, 4147, 5114, 1184, -305, -582, 1376, -1480, -2396, 2258, 1632, 5074, 301, 4658, 778, -562, 3605, 576, -1028, 3460, 4817, 1500, 1832, -1779, -852, 4527, 1702, -1084, 248, 2663, -24, -195, 5117, 1341, 1611, 3953, 1742, -1018, 1331, 1365, 2156, -1476, -1581, 459, -1730, -1207, 337, -720, 3260, -1711, 6028, 2187, 3093, -2478, 6155, -297, 3488, 663, 4002, 4466, 563, -2320, -351, 5112, -1215, -642, 7047, 546, -3519, 61, 2851, 3669, -933, 4935, -469, 2195, 3483, -1498, 1595, 4151, 3542, 4818, -3097, 2467, 1563, 2893, 6695, -1764, 4373, 2845, 1910, -3837, 2963, 3671, -790, 4530, -1104, 4141, 5982, 610, 4346, -2884, 5563, 5313, 5022, 1537, 1571, 293, 362, 105, 2844, 4658, 3813, 2812, -1238, 2938, -1126, -3503, -957, 280, -443, -1213, -24, 1236, -1692, 366, -55, -84, 3579, 1484, 1864, 2382, 6373, 1764, 5666, 2204, -13, -1140, 2289, 791, 555, 2274, 1797, 6249, -1608, 2543, 6959, 2181, 5046, 4459, -753, 435, 6904, 1313, 3942, 5640, -1393, 322, 4377, 6664, 6366, 6516, 5020, 1956, 4730, 1344, 4032, 730, 1280, 4754, 2505, 5205, 5133, 4702, -1010, 2498, 81, 6432, 8454, 6286, 5449, -72, 1547, 1552, -1616, 2773, -1776, 931, -2102, 3457, 624, 3044, 7784, -537, 2448, 4584, 965, 5223, 393, 4569, 6297, 4109, 3170, 3023, 323, 1067, 3929, 2344, -1351, -1304, -1210, 2758, 1029, -219, 964, 106, 1146, -1222, -442, -239, 1442, 3845, 6495, 909, -872, 3081, 2813, -2405, 4390, 2856, -1606, 2875, -3332, -992, 1836, -1485, 472, 1102, 1631, 638, -2525, 6122, 2671, -1426, 1035, 1912, -939, -1838, 113, 281, 7317, 2605, 4721, 8, -1856, 4265, -2434, -1395, -460, 4139, -1190, 31, -1525, 3982, 4653, 5731, 6794, -346, 5346, 1998, 3178, 1646, 2009, -177, 374, -1483, 2626, -50, 2760, 4459, 7593, 183, -743, 5820, 349, 4475, -152, 3461, 36, 1215, -1754, -1745, 6517, -1229, -604, -1129, 1118, -1665, 6129, -1516, -1118, 1790, -3117, 2105, -1970, -3782, 3680, 3858, 3611, 1818, -2336, -994, -2105, 3478, -322, -3112, 3560, 4833, -1827, 2428, -1759, 513, 2185, 3843, -1055, -2276, 3282, -136, -2180, -3506, 6416, 65, -1048, -311, 1816, 1658, 4918, 5579, 4344, -2621, 736, 3664, 4798, 5657, -421, 5383, 768, -364, 1749, 2099, -1961, 2149, 2271, 3880, 3373, -553, 3933, 2002, 4120, 1126, 1924, -845, 1038, 1879, -4169, 2055, -1220, 327, 5724, -1104, 481, -992, -1101, 1840, -3077, -1243, -631, -1101, -1282, 1855, 156, -1044, -737, 808, -1250, 149, 1306, 3107, 4548, 3792, -2322, -1166, 144, -967, 3135, -1206, 1043, 856, 1754, 2446, -1955, 2545, 4629, -1128, 610, 6784, 3932, 3325, 5735, 2077, 180, 7082, 1967, 1257, 3050, 1295, -1705, 5862, -1457, 3562, -1579, 3402, 2089, 3085, 4979, 303, -683, 5345, 327, -36, 1860, 4645, 91, -196, 1281, -1326, -155, -1865, -1801, 1736, 149, 1025, -323, -872, 2099, 1493, -106, -230, 4820, 2502, 3347, 678, -1408, 4238, -1493, 5054, -1885, 414, -972, 2202, 1059, 397, 2453, 4041, 5585, 1717, 754, -89, 1830, -1447, 8490, 3364, -1465, -349, 669, 1042, 4660, 5541, 1877, 1307, 3571, 817, 7647, -1516, 1416, 668, 4489, -2514, 188, 435, -1413, 5018, 424, 2863, -380, 2213, 2947, 672, -2509, 2154, 6048, -1900, -201, -2131, 5938, 2309, 3352, -120, -278, 2785, -3671, -188, 5215, -4793, 56, -1600, 3996, -49, 4408, 5399, 2005, -954, -1280, -29, 212, 1796, -1305, -696, -563, 2996, 2765, 2530, 3207, 3156, 3074, 522, -355, 476, 6339, 5675, -145, 42, 3310, 3056, -1506, 708, 753, 2321, -1261, 630, -1272, 2168, 3896, 4984, 6347, 1322, -396, -770, -29, 847, -368, 3490, 3920, 8554, 1728, 2644, 6331, 1238, -1918, -471, -648, 423, 5387, 1010, 3039, 3875, -47, 4673, -379, 2845, 834, 4583, -2194, 2544, -1008, -706, 3893, -1538, -2710, 1549, 1175, 2226, -2038, 1554, -2988, 775, 3244, 3613, 3861, -265, 2107, 2653, 2473, 283, 1554, -407, 1724, -1068, 4270, 3343, -1816, -1185, 404, 3446, 43, -28, 2973, 781, 2912, -480, 100, -1586, 410, 3035, 6256, 2557, -1800, 1494, 1393, 3284, 2348, 4269, 1015, -1450, 4891, 494, -3415, 67, 3903, 6264, -464, -795, 5050, 1308, 4112, 81, 1324, 2619, 1110, -270, -316, -820, 5905, 2332, 168, 3126, -1316, 6220, 2366, 93, 3760, 2538, -2651, 707, 4673, 524, 3677, -1698, 192, 3092, -960, -1650, -2108, 100, 1857, -2036, -2513, 3923, 4767, -2173, -813, -3346, 2993, -886, -508, 133, 3377, 4106, 4432, -2148, 3692, 570, -3323, 6039, 1775, 4647, 6749, 5387, 1195, 3217, -1354, 3713, 267, 1457, -41, 4297, -2067, 797, 1233, -1157, -1849, 3076, -160, 1537, -2081, 4878, 1947, 249, 704, 935, 277, 3887, 132, 1985, 5424, -1214, -2996, 1540, -2176, 7271, -248, 3520, 5677, 1414, 1093, -8, -1167, 1583, 521, 4757, -719, 4546, -645, 3915, 3349, 3248, 3857, -1714, 1418, 3943, 2223, 1576, 1221, -11, 4460, 4155, 5694, -491, 7590, -872, 3812, 439, 5298, 663, 1876, 5949, 1222, 2857, -607, -231, -1274, 5381, 1411, 5998, -3495, -2843, 1350, -375, 5101, -1692, -1471, 2758, -2004, -1536, -890, -647, 3399, 1628, 2610, -2717, 3378, 5754, -1218, 281, -930, 1385, 148, 1844, -1613, 2064, 1244, 896, 1435, 5189, -999, 5316, -1854, 5720, 4334, 2987, -1647, 2948, 585, 3505, 147, 2988, -674, -1626, 2551, 2144, 2459, 1686, -2433, -225, 4177, -185, 5136, -1218, -3542, 4124, 5299, -248, -2006, 368, 5046, -723, -853, 1736, -329, -1990, 922, -620, 8229, -1827, 1075, 3387, 702, 6661, 5505, 5040, -2038, -579, -4134, 6236, -345, 5684, 1056, 3110, 3272, -1786, -2581, 1724, 388, 2760, -1699, 3393, 1074, 1482, 2956, 2038, 928, 5015, 1253, -645, 2568, 3111, -1085, 2453, 3825, -2211, 5571, -87, 4961, 3349, 1432, 4794, 694, -421, -990, -2081, 1737, 4333, -2312, -687, -1963, -347, 1668, 3675, 2218, 966, 4639, -411, -836, -540, 3077, -444, -1219, -498, -1594, 1777, 6690, -1811, 4556, 2369, 7412, 2352, 3428, 4094, 4435, 2720, -1337, 3159, 1504, 1095, 6552, 4051, -14, 6155, 3918, -1561, 3768, 1494, 771, -3524, 837, -218, -1260, -147, -3105, -1858, 5196, 5623, 4664, -110, 4072, 7070, 1400, 5164, -666, 4592, 3436, -2755, -750, -2485, -846, 3326, 6161, 3503, -1273, -565, -237, 2038, 314, 1822, 1324, 5208, -459, 6044, 2908, -1350, 4432, -1656, 2099, 4612, 1361, 140, 552, 1498, -301, 592, 4896, 1028, 1465, 1260, -1307, 3012, -1678, -1046, 5241, 1689, -1325, -147, 1076, 1982, 87, 5687, -916, 4147, 27, 2898, 5724, 2550, 416, 517, -598, 5612, 1334, -1200, 2316, 3229, 2363, -388, 1735, -166, 2862, 4025, 3776, -2490, 6643, -1537, 6409, 2146, 4845, 4817, 1307, 4447, 4761, -1333, -3215, 2067, 4365, 1784, 42, 93, 1442, -2630, 8486, 2188, 744, -1197, -742, -1415, 5194, 3969, -1365, 539, 4932, 4998, 4421, -273, 1624, -171, 3725, 2416, 4934, 6209, -1582, 5304, 6629, -4075, -1976, 388, 2037, 3744, -1180, 638, 3456, -4985, 2981, -713, 656, 1810, 1107, -991, -312, 8174, 3342, -132, 755], "checkpoint_weight": [6, 11, 4, 23, -2, 29, -30, -4, 14, 47, -37, 28, -37, 29, -11, 0, 3, 0, 16, -52, 31, 17, 18, 25, 11, 1, 44, -20, -4, -28, 9, -26, 15, -50, 27, 25, 1, 8, 10, 30, 12, -20, 11, 7, -22, -39, 5, -8, -7, 33, 15, 26, 45, -40, -21, 36, -10, 15, 0, -11, 8, -29, 27, -6, -1, 25, -29, -38, -6, 17, -15, 32, 5, 14, -19, -15, -19, -1, -4, -25, 20, 14, -4, -37, 18, 28, -20, -2, 6, 8, 6, -23, 21, -18, 38, -49, 0, 2, 1, 9, 34, 12, -40, 32, 18, -19, 15, -6, 16, 20, 22, 9, -6, 41, -45, 31, 43, -2, -13, -6, -39, -7, 22, -32, 67, 25, 2, -24, 17, -49, 0, -3, 38, 19, 0, 27, 31, 2, 62, -3, -13, -15, 10, 41, 46, 35, 26, -12, 33, -8, 0, 15, 6, -11, 8, 36, -1, -19, 34, 11, 26, 19, -46, 1, -26, 31, 22, -3, -25, 70, 39, 13, 1, 5, 15, -19, 32, -12, 5, 60, -23, 6, 7, 5, -15, 22, 14, -5, -8, -5, 40, 15, -20, 21, -12, 1, 28, 45, 15, 22, 12, 2, 36, -55, 8, -34, 20, 15, 28, 21, -36, 54, -18, 43, -6, -20, -11, -24, 17, 2, -10, -16, -2, -13, -19, -37, -35, -5, 26, 22, -19, 65, 39, -12, -3, 12, 29, -6, 39, 28, -30, 38, 31, 5, -12, 17, 21, 0, -16, 46, 51, -10, 34, 24, -22, -37, -9, -10, 34, -7, -7, 14, -2, -8, -2, -42, 0, -5, -18, 37, -3, 23, -9, 22, -9, 38, -29, 17, -37, -1, 0, 3, 23, 35, 17, 62, 6, 24, 1, 15, 35, 0, 3, 10, -11, -3, -8, -24, 19, 49, 55, -1, 15, 16, -1, -5, -51, -7, 35, 6, 6, -35, 17, 31, 14, 0, 6, 6, 16, 33, 17, 26, -9, -3, -34, 7, 15, -10, -1, 22, 13, 12, 62, 32, 14, -6, 25, 53, 17, -24, -5, -37, -13, -17, 71, -8, 11, -24, 14, -31, 12, -20, -15, -5, 21, 51, 20, 25, 11, 32, 19, 45, 62, -44, 23, -24, 12, -1, 30, 12, 0, -9, 11, 10, 36, -19, 46, -7, 52, -17, 28, -36, 24, -4, -43, 32, -46, 14, 7, 7, -9, -32, 23, 22, 15, 10, 6, 16, 10, 28, 31, -24, -8, 21, 21, 0, -37, 0, -21, 5, 25, 3, 50, -18, 24, -15, -25, 62, -13, -12, -20, -11, -24, 36, 15, -9, 36, 11, 42, -4, 1, 1, 14, 20, 2, -10, 14, 26, -13, 5, -13, 30, -6, 19, -7, -5, 10, -3, -2, 4, 21, 24, 51, 21, 21, 41, -6, 21, 3, 4, -45, -16, 24, 32, -7, 19, 9, 12, 43, 26, -4, -21, -2, 3, -7, 17, -4, 26, 31, -8, -3, 51, -30, 10, -15, -14, -38, 29, -11, 7, -2, 9, 51, -15, 1, 9, 14, 15, 50, 9, 5, -27, 26, 54, 2, -8, -1, 36, -21, -45, 0, 6, -10, 32, 7, -6, 16, 20, 14, 16, -22, -16, 24, 21, 6, -7, 29, -30, 7, 41, -33, 22, -14, -3, 14, -9, 3, 35, 23, -27, 11, -22, 40, 8, -23, -5, 31, 1, -6, 29, 18, 0, 2, 31, -20, -15, -14, -27, -9, -14, 26, 32, 3, -2, 19, 11, 11, 22, 1, 53, 1, 18, -1, -11, -43, 0, 34, 29, 2, -66, 18, 9, 29, 36, -16, -13, 36, 11, -31, -5, -6, 10, -54, 21, 17, 21, 14, -2, 43, 18, -15, 22, -24, -8, -18, 34, -25, 18, 54, -36, 43, -36, 29, 26, 7, 24, 34, 17, -9, -3, 11, -6, 17, -16, 9, -16, -8, -7, -20, -24, 28, 4, -3, 8, 20, 12, 16, 6, -16, 32, 2, 20, 24, 42, 18, 18, 37, 34, 33, -7, 12, 64, -18, -17, 26, 11, 18, -1, 17, -15, 21, 37, -19, 25, -42, 20, 31, 20, 15, -13, -33, 9, -27, -33, 11, -5, 0, 4, -16, -35, 15, -7, -15, -31, 59, -20, 12, 37, 37, 20, -5, -26, -10, -3, 0, 35, -2, 24, -3, 11, 7, 14, -5, 24, 9, -3, -14, 4, 4, 22, -12, 24, 32, -33, 4, 4, 15, -29, -12, 4, -9, 3, 2, -29, 11, -36, 9, -9, -25, 8, -15, 18, 15, 7, -34, -8, -22, 63, 37, 5, 17, 22, 45, 21, -22, 0, 6, 54, 34, -25, 41, 26, 19, 0, -21, 18, -15, 0, 28, 19, 12, -57, 3, 15, 33, 26, 50, -35, 36, 36, -15, 13, 32, 27, 24, 10, -9, -13, -29, 0, 9, 60, 13, -22, -11, -33, 27, -22, -21, 49, -1, 33, -45, -34, -10, 31, -33, -44, -14, -6, -20, -10, -17, 18, 10, 37, 3, 13, 10, 38, -13, 11, 52, -2, -16, 32, 39, -54, 41, 0, 0, -26, -32, -26, -11, 8, 34, 46, 14, 6, -10, -3, -20, 0, 31, -14, -2, -8, 15, -24, -1, 2, 0, -39, 25, 22, 10, -6, 19, 0, -30, -14, 9, 32, -10, -31, 15, -7, -18, -45, -4, 14, -20, 11, -4, 11, 13, -15, -18, 4, 29, -6, -28, -12, 22, 28, 17, 27, -30, 11, 46, 48, 20, 16, -15, -9, -20, 74, 6, -19, -11, 2, 10, 11, -25, 1, 18, -15, 5, 7, 32, 27, 84, 65, 15, -9, 35, 35, -11, 31, 25, 27, 4, 27, 26, 9, 10, -29, -7, -10, 18, 6, 5, -26, 25, 10, 23, 29, 28, 24, 29, 23, -41, 43, -33, -15, -10, 16, -1, 36, 26, 60, -23, 23, 2, 2, 0, -18, 7, -29, 15, 17, 2, 30, 34, -9, -11, 9, -20, -21, -16, -36, -5, -16, -16, 15, 28, 12, 21, 19, -11, 19, 4, -16, 24, -7, -7, -8, -34, 44, -15, 11, -17, 16, -9, 28, 5, 29, 25, -44, -40, -5, -13, 19, 49, 21, -57, -1, 4, 17, 7, 50, 30, 25, 8, 13, 34, -5, -9, -14, -9, -5, -9, 4, -14, -36, -21, 36, 11, 3, 31, 55, 9, 30, -16, -16, 42, 22, -7, 26, 4, -5, 17, 2, 3, 26, -15, 18, -16, -32, 29, 11, 29, 33, 0, -20, 2, 24, 8, 14, -19, -39, -22, 22, 25, -24, -2, 5, 23, 8, 23, -54, 0, 3, -53, 0, 10, -16, 3, -14, 33, 5, 5, -39, 5, -30, -3, -22, -1, 1, 10, -4, -13, -16, -2, 16, -15, 45, -14, -9, 4, 3, -2, 16, 12, 9, 53, 14, 40, -26, -29, 4, 35, 78, 22, -18, -21, 12, 10, 16, 36, 6, -26, -18, -23, -27, 34, 24, 12, 19, -26, -7, 22, 26, -32, -25, 21, 27, 12, -10, -33, 44, 17, 38, -3, 25, 13, -34, 34, -41, 11, 25, 20, 0, 18, -9, 7, 28, 4, -6, -24, -1, -12, 22, 9, 1, 15, -29, -16, 39, 44, -9, 39, 30, -22, -10, -50, 17, 0, -17, 19, -14, 5, 29, 20, 8, 22, 6, 49, 7, -11, -5, 18, -11, 4, -34, 2, 20, 6, 7, -14, -3, 46, 27, 4, 17, -14, 1, 30, -23], "checkpoint_bias": -5, "calculated_output": 3505}